<?xml version="1.0"?>
<opencv_storage>
<my_svm type_id="opencv-ml-svm">
  <svm_type>C_SVC</svm_type>
  <kernel><type>LINEAR</type></kernel>
  <C>1.</C>
  <term_criteria><epsilon>1.1920928955078125e-007</epsilon>
    <iterations>1000</iterations></term_criteria>
  <var_all>26</var_all>
  <var_count>26</var_count>
  <class_count>3</class_count>
  <class_labels type_id="opencv-matrix">
    <rows>1</rows>
    <cols>3</cols>
    <dt>i</dt>
    <data>
      0 1 2</data></class_labels>
  <sv_total>3</sv_total>
  <support_vectors>
    <_>
      -4.69857007e-002 2.93954965e-002 -3.35059478e-003 -1.98940746e-002
      1.22372725e-003 -1.74147207e-002 1.08754598e-002 -1.01535348e-002
      -3.26729678e-002 8.13743845e-003 -4.50969301e-002 -3.63782421e-002
      -3.03969327e-002 1.05786268e-002 1.67768337e-002 -2.72811279e-002
      -4.18138318e-002 -4.82001621e-003 -7.55861029e-003 1.92211866e-002
      -5.73698757e-003 1.33296689e-002 -1.25118000e-002 1.00684585e-002
      1.62433051e-002 -2.78188591e-003</_>
    <_>
      -6.21260144e-003 1.74704008e-002 -1.71189830e-002 6.33524905e-004
      -1.43040763e-002 -1.79620646e-002 4.43468336e-003 -1.53839216e-002
      -6.00952050e-003 -1.08231632e-002 -1.13175875e-002
      -8.48634169e-003 7.74447853e-003 1.56092197e-002 7.48286070e-003
      -1.16436230e-002 -6.50884164e-003 -1.36424256e-002 1.63285964e-004
      -6.29665656e-003 2.20771716e-003 6.37260312e-003 1.12071088e-004
      -3.14380461e-003 6.43519405e-003 -2.16400297e-003</_>
    <_>
      1.47280125e-002 5.42474771e-003 -1.96129382e-002 4.94552441e-002
      -5.08095138e-002 8.85646325e-004 -9.97798168e-004 -1.32832639e-002
      8.85828957e-003 -1.81986857e-002 2.68204766e-003 -4.57115360e-002
      -1.31272394e-002 1.92924738e-002 -6.73875771e-003 -5.51846735e-002
      9.20484960e-003 -2.26972587e-002 6.33116299e-003 -2.16955086e-003
      9.74531868e-004 1.14948824e-002 5.51401172e-003 -7.06167286e-003
      2.44942424e-003 2.52392399e-003</_></support_vectors>
  <decision_functions>
    <_>
      <sv_count>1</sv_count>
      <rho>-7.4902501077904826e-001</rho>
      <alpha>
        1.</alpha>
      <index>
        0</index></_>
    <_>
      <sv_count>1</sv_count>
      <rho>-3.0050205156996518e-001</rho>
      <alpha>
        1.</alpha>
      <index>
        1</index></_>
    <_>
      <sv_count>1</sv_count>
      <rho>-2.1637199780310716e+000</rho>
      <alpha>
        1.</alpha>
      <index>
        2</index></_></decision_functions></my_svm>
</opencv_storage>
