<?xml version="1.0"?>
<opencv_storage>
<my_svm type_id="opencv-ml-svm">
  <svm_type>C_SVC</svm_type>
  <kernel><type>POLY</type>
    <degree>1.</degree>
    <gamma>5.0000000000000000e-001</gamma>
    <coef0>0.</coef0></kernel>
  <C>1.</C>
  <term_criteria><epsilon>1.1920928955078125e-007</epsilon>
    <iterations>1000</iterations></term_criteria>
  <var_all>26</var_all>
  <var_count>26</var_count>
  <class_count>3</class_count>
  <class_labels type_id="opencv-matrix">
    <rows>1</rows>
    <cols>3</cols>
    <dt>i</dt>
    <data>
      0 1 2</data></class_labels>
  <sv_total>15</sv_total>
  <support_vectors>
    <_>
      2.16593430e+002 2.06218674e+002 2.20774673e+002 7.14645004e+001
      6.91087112e+001 3.16597347e+001 2.11732773e+002 1.34425705e+002
      1.30701904e+002 5.77129478e+001 2.04758377e+001 8.00262642e+000
      1.19374870e+002 3.72451324e+001 2.30927002e+002 3.11807098e+001
      6.63329697e+001 3.52362900e+001 1.03402031e+002 4.98186201e-001
      5.54588470e+001 7.91155930e+001 3.45049171e+001 1.26190834e+002
      1.74045696e+001 6.79841518e+000</_>
    <_>
      2.08415680e+002 2.13898605e+002 2.33989075e+002 9.18552322e+001
      8.63774185e+001 4.17119141e+001 2.19282455e+002 1.38485550e+002
      1.21873909e+002 7.25326462e+001 2.51722260e+001 1.45959778e+001
      1.70851707e+001 4.38558846e+001 2.34961868e+002 4.59809113e+001
      9.05062408e+001 4.03289413e+001 1.23976440e+002 7.13494797e+001
      4.78106995e+001 3.02994347e+001 1.79035664e+001 8.27509785e+000
      3.89726996e-001 9.79620590e+001</_>
    <_>
      1.89693115e+002 2.00863373e+002 2.10738983e+002 9.10388031e+001
      7.99189758e+001 6.21728592e+001 2.02538971e+002 1.33846848e+002
      1.20751823e+002 7.35696945e+001 1.90627174e+001 1.51057787e+001
      5.23143997e+001 5.38010216e+001 2.17461563e+002 7.12569046e+001
      8.30724258e+001 5.24161720e+001 4.20467436e-001 3.65391502e+001
      1.18340385e+002 5.39620476e+001 9.64937897e+001 2.12645741e+001
      8.87014580e+000 7.61582108e+001</_>
    <_>
      2.21897324e+002 2.22944580e+002 2.39402527e+002 7.38087006e+001
      7.32957840e+001 3.68239670e+001 2.27746857e+002 1.36307022e+002
      1.24701340e+002 6.18493385e+001 2.01285992e+001 8.18811321e+000
      2.37480087e+001 2.90055618e+001 2.39445602e+002 5.96173935e+001
      6.58015976e+001 3.67464256e+001 4.84111404e+001 6.63930416e-001
      7.14412689e+001 2.91495342e+001 9.66885834e+001 1.46051544e+002
      1.34716759e+001 1.26623634e+002</_>
    <_>
      2.05704865e+002 2.07413132e+002 2.25516220e+002 8.82373352e+001
      8.63691559e+001 5.13620605e+001 2.12632919e+002 1.37180359e+002
      1.24092834e+002 7.56507416e+001 1.95479374e+001 8.58538723e+000
      1.89401779e+001 4.07803535e+001 2.25982391e+002 4.53455124e+001
      8.13410797e+001 5.12302780e+001 7.13868637e+001 4.64038162e+001
      1.34719513e+002 9.61200027e+001 8.02222908e-001 2.65247097e+001
      1.20732643e+002 1.16911888e+001</_>
    <_>
      2.15360626e+002 2.14536713e+002 2.30064316e+002 8.26918564e+001
      8.56000671e+001 5.44158821e+001 2.19268448e+002 1.35693954e+002
      1.25807915e+002 7.54859085e+001 1.75787354e+001 5.71989822e+000
      2.69930668e+001 3.59347992e+001 2.30095917e+002 6.25423279e+001
      7.74879608e+001 5.43915977e+001 3.57153091e+001 1.32364670e+002
      2.16040001e+001 7.65038910e+001 5.42020202e-001 9.72309875e+000
      5.31625595e+001 1.01328949e+002</_>
    <_>
      1.64274445e+002 1.65938004e+002 1.94115326e+002 1.15949265e+002
      1.14931717e+002 8.27631378e+001 1.74172607e+002 1.42224167e+002
      1.22415459e+002 1.04228157e+002 2.32098923e+001 9.67523384e+000
      3.11056900e+001 8.43076859e+001 1.94222000e+002 6.57193832e+001
      1.12503296e+002 8.27092285e+001 2.35334320e+001 3.98074875e+001
      1.12363350e+002 5.22588849e-001 9.60515137e+001 7.77694168e+001
      8.95380497e+000 5.79313545e+001</_>
    <_>
      1.37190170e+002 2.16778961e+002 2.04516357e+002 9.76098328e+001
      3.37767258e+001 4.36727104e+001 2.04050995e+002 1.28360687e+002
      9.02828979e+001 4.33003693e+001 2.82841730e+000 3.23240128e+001
      2.59951077e+001 1.06213806e+002 2.16959518e+002 2.37041588e+001
      9.07007599e+001 3.32725372e+001 1.11113312e+002 8.07872925e+001
      5.40946159e+001 4.65023488e-001 3.37914276e+001 1.27970802e+002
      1.92978401e+001 8.38095188e+000</_>
    <_>
      1.90479523e+002 2.18956085e+002 1.99538071e+002 9.21161575e+001
      5.58586349e+001 7.44375381e+001 2.09901306e+002 1.20605011e+002
      1.17046463e+002 6.46480255e+001 9.50296211e+000 1.93989010e+001
      3.10806808e+001 5.52409477e+001 2.19375076e+002 3.60765038e+001
      7.60415955e+001 5.57361183e+001 3.56722832e+001 2.15609474e+001
      9.82595291e+001 7.31670151e+001 5.22433395e+001 9.93498993e+000
      5.62108874e-001 1.24869766e+002</_>
    <_>
      1.44520935e+002 2.05206146e+002 1.80956238e+002 9.94506226e+001
      4.96507187e+001 6.64897079e+001 1.91033844e+002 1.20808250e+002
      1.01762566e+002 5.93898506e+001 7.08568001e+000 2.55499344e+001
      2.73695736e+001 9.41153412e+001 2.05255341e+002 2.53134518e+001
      9.51317215e+001 4.96368752e+001 1.95131378e+001 8.48122406e+000
      9.33262024e+001 3.42358322e+001 1.17312500e+002 5.17192650e+001
      7.16568375e+001 4.35578495e-001</_>
    <_>
      1.30836533e+002 1.85718903e+002 1.65784653e+002 1.04935173e+002
      6.38587341e+001 7.96120148e+001 1.73497833e+002 1.22483086e+002
      1.03934174e+002 7.29758606e+001 5.12113428e+000 1.99669132e+001
      2.59145908e+001 1.06761330e+002 1.85749451e+002 2.14002895e+001
      9.28098526e+001 6.38336487e+001 6.69425666e-001 5.11625595e+001
      3.16073723e+001 9.91340561e+001 1.41963806e+002 1.43731346e+001
      7.40552139e+001 1.25203964e+002</_>
    <_>
      1.69272598e+002 2.22261673e+002 2.10674149e+002 9.33717575e+001
      3.80619507e+001 4.94788170e+001 2.12765152e+002 1.26546371e+002
      1.03470078e+002 4.69193230e+001 2.50267959e+000 2.88730507e+001
      2.40571480e+001 7.30738525e+001 2.22450958e+002 2.87906265e+001
      8.49922333e+001 3.79751396e+001 1.06192986e+002 7.00595021e-001
      5.86170883e+001 8.22900009e+001 3.67493019e+001 2.15885353e+001
      1.21796997e+002 1.00119410e+001</_>
    <_>
      8.92463303e+001 9.32014618e+001 1.60202164e+002 9.25145187e+001
      9.26920700e+001 8.41226578e+001 1.12785835e+002 1.61812210e+002
      1.14720337e+002 8.36511536e+001 3.67349625e+001 1.38441458e+001
      5.61729145e+000 9.85902100e+001 1.60202164e+002 2.75170288e+001
      1.05613075e+002 8.41226578e+001 7.80362473e+001 5.34386482e+001
      1.08611107e+002 3.51747322e+001 2.04948177e+001 9.55619240e+000
      7.29917645e-001 1.38745255e+002</_>
    <_>
      1.45166840e+002 1.44989502e+002 1.95114548e+002 1.10956367e+002
      1.11533653e+002 6.60439529e+001 1.59996414e+002 1.53041626e+002
      1.19630211e+002 9.67791519e+001 2.76632824e+001 9.07312202e+000
      4.17586670e+001 9.79140015e+001 1.95204376e+002 7.28785934e+001
      1.01906120e+002 6.61209641e+001 5.95237045e+001 3.73125000e+001
      2.09093704e+001 8.77993851e+001 1.33283432e+002 3.89376730e-001
      1.18821640e+002 8.84921646e+000</_>
    <_>
      1.86522202e+002 1.86482864e+002 2.12259064e+002 9.32038345e+001
      9.54325790e+001 6.00594101e+001 1.94196365e+002 1.40889740e+002
      1.23654274e+002 8.38240356e+001 2.10297813e+001 7.16903305e+000
      4.75766068e+001 5.39779968e+001 2.13118729e+002 7.56758804e+001
      7.83281097e+001 5.91864624e+001 2.81656563e-001 9.14326935e+001
      3.79979210e+001 1.24267059e+002 2.23314819e+001 1.20681820e+001
      6.23522720e+001 5.84231520e+000</_></support_vectors>
  <decision_functions>
    <_>
      <sv_count>8</sv_count>
      <rho>5.4568432942014580e+000</rho>
      <alpha>
        1.5347359489676885e-005 2.1577551026941139e-004
        5.0666037414133860e-004 5.5089181583061847e-005
        4.5618555648483512e-005 -9.4351674058922697e-005
        -6.2702428020933675e-004 -1.1711502686371310e-004</alpha>
      <index>
        0 1 2 3 4 7 8 9</index></_>
    <_>
      <sv_count>6</sv_count>
      <rho>5.4845360160594394e+000</rho>
      <alpha>
        6.6248027863554974e-006 1.0664222311538173e-004
        2.0072767473421421e-004 1.4627242660572229e-004
        -1.1093768226810323e-004 -3.4932944497357036e-004</alpha>
      <index>
        2 4 5 6 12 14</index></_>
    <_>
      <sv_count>7</sv_count>
      <rho>3.9652002140165027e-001</rho>
      <alpha>
        1.2898049836650542e-005 2.8872210601053965e-005
        1.5053742647095597e-004 9.2441005950204879e-005
        -5.8486576330735511e-005 -1.3983349830198010e-004
        -8.6428618226149723e-005</alpha>
      <index>
        7 9 10 11 12 13 14</index></_></decision_functions></my_svm>
</opencv_storage>
