<?xml version="1.0"?>
<opencv_storage>
<my_svm type_id="opencv-ml-svm">
  <svm_type>C_SVC</svm_type>
  <kernel><type>LINEAR</type></kernel>
  <C>1.</C>
  <term_criteria><epsilon>1.1920928955078125e-007</epsilon>
    <iterations>1000</iterations></term_criteria>
  <var_all>26</var_all>
  <var_count>26</var_count>
  <class_count>2</class_count>
  <class_labels type_id="opencv-matrix">
    <rows>1</rows>
    <cols>2</cols>
    <dt>i</dt>
    <data>
      0 1</data></class_labels>
  <sv_total>1</sv_total>
  <support_vectors>
    <_>
      3.11298482e-002 1.37918917e-002 -3.76594812e-002 5.40027246e-002
      -5.51635139e-002 3.70927108e-003 3.40138766e-004 -2.71933712e-002
      1.73503011e-002 -1.62048843e-002 -3.22368555e-003 -4.61813658e-002
      -3.49510205e-003 3.32287475e-002 8.27939156e-003 -5.27520366e-002
      -1.75628886e-002 -2.95002591e-002 1.37990229e-002 -4.46435733e-004
      -3.66417388e-003 8.39549815e-004 1.50042567e-002 -1.41538996e-002
      -1.06713176e-002 -1.84167884e-002</_></support_vectors>
  <decision_functions>
    <_>
      <sv_count>1</sv_count>
      <rho>-1.3102873273243271e-001</rho>
      <alpha>
        1.</alpha>
      <index>
        0</index></_></decision_functions></my_svm>
</opencv_storage>
