<?xml version="1.0"?>
<opencv_storage>
<my_svm type_id="opencv-ml-svm">
  <svm_type>C_SVC</svm_type>
  <kernel><type>LINEAR</type></kernel>
  <C>1.</C>
  <term_criteria><epsilon>1.1920928955078125e-007</epsilon>
    <iterations>1000</iterations></term_criteria>
  <var_all>26</var_all>
  <var_count>26</var_count>
  <class_count>3</class_count>
  <class_labels type_id="opencv-matrix">
    <rows>1</rows>
    <cols>3</cols>
    <dt>i</dt>
    <data>
      0 1 2</data></class_labels>
  <sv_total>3</sv_total>
  <support_vectors>
    <_>
      -5.42979687e-002 4.91031148e-002 -3.43339518e-002 7.80618889e-003
      2.86647119e-002 -9.29344222e-002 1.24209607e-002 -3.31521556e-002
      -3.76989134e-002 2.48839911e-002 -1.07092626e-001 -5.88596016e-002
      -3.71651389e-002 -3.19573805e-002 1.49515234e-002 -3.65519151e-002
      2.29063854e-002 4.49808454e-003 9.04170703e-003 7.89997634e-003
      5.96731855e-003 1.74931698e-002 1.46506671e-002 -2.10878230e-003
      1.02424705e-002 1.30574377e-002</_>
    <_>
      -5.07681770e-003 1.33846411e-002 -7.25609343e-003 3.22561781e-003
      -1.47392442e-002 -2.16592215e-002 5.10735530e-003 -8.82476848e-003
      -5.74463280e-003 -1.15451068e-002 -1.13160564e-002
      -9.60474648e-003 3.72455525e-003 1.75478943e-002 6.53262902e-003
      -1.25705078e-002 -5.92282461e-003 -1.57459136e-002 1.17080472e-002
      3.73050082e-003 1.40212420e-002 5.96951041e-003 2.42340076e-003
      3.32198048e-004 2.94384966e-003 -5.00863744e-003</_>
    <_>
      2.84599680e-002 1.50214732e-002 -2.53693108e-002 5.96192256e-002
      -5.11275530e-002 1.82294957e-002 4.49201837e-003 -2.13354342e-002
      1.35608120e-002 -1.10962633e-002 8.78504384e-003 -5.63666411e-002
      9.11163690e-004 4.02628854e-002 -8.58305953e-003 -8.04835707e-002
      -6.88267872e-003 -2.28895396e-002 6.28622901e-003 1.23786163e-002
      2.06676163e-002 -3.79175181e-004 -5.49889449e-003 -8.12689587e-003
      -1.44457621e-002 -1.24392975e-002</_></support_vectors>
  <decision_functions>
    <_>
      <sv_count>1</sv_count>
      <rho>-7.4482903390004864e+000</rho>
      <alpha>
        1.</alpha>
      <index>
        0</index></_>
    <_>
      <sv_count>1</sv_count>
      <rho>3.2593227601211607e+000</rho>
      <alpha>
        1.</alpha>
      <index>
        1</index></_>
    <_>
      <sv_count>1</sv_count>
      <rho>2.6765330486392656e+000</rho>
      <alpha>
        1.</alpha>
      <index>
        2</index></_></decision_functions></my_svm>
</opencv_storage>
