<?xml version="1.0"?>
<opencv_storage>
<my_svm type_id="opencv-ml-svm">
  <svm_type>C_SVC</svm_type>
  <kernel><type>LINEAR</type></kernel>
  <C>1.</C>
  <term_criteria><epsilon>1.1920928955078125e-007</epsilon>
    <iterations>1000</iterations></term_criteria>
  <var_all>26</var_all>
  <var_count>26</var_count>
  <class_count>3</class_count>
  <class_labels type_id="opencv-matrix">
    <rows>1</rows>
    <cols>3</cols>
    <dt>i</dt>
    <data>
      0 1 2</data></class_labels>
  <sv_total>3</sv_total>
  <support_vectors>
    <_>
      -1.00848172e-002 1.67992560e-003 1.03282696e-002 -3.00081004e-003
      -6.37243385e-004 -7.59592571e-004 2.92608468e-003 5.28137665e-003
      -7.34088803e-003 -3.96952732e-004 -1.86273037e-003
      -9.44680127e-004 -6.02798956e-003 4.13698191e-003 1.54480501e-003
      -1.74933602e-003 -2.59990152e-003 -6.27317757e-004 9.74186347e-004
      -1.81700150e-003 1.23926345e-003 2.16464032e-004 4.78442758e-003
      -3.80304130e-003 3.99231073e-003 -4.25180560e-003</_>
    <_>
      7.23423902e-004 6.81396853e-003 4.66285041e-003 -2.70828954e-003
      -5.02095465e-003 -6.16340851e-003 5.47539722e-003 -5.81871311e-004
      -2.68082437e-003 -4.69433982e-003 -2.27589859e-003
      -2.04571057e-003 -1.42492750e-003 2.92337942e-003 6.03611674e-003
      -4.54539154e-003 -3.16579337e-003 -4.81046224e-003 1.39708060e-003
      3.50340526e-003 1.07881846e-002 2.13602372e-003 -2.82655144e-003
      2.49478500e-003 6.85514696e-003 1.45944010e-003</_>
    <_>
      7.74646085e-003 3.35442368e-003 -6.26803050e-003 2.04081676e-004
      -3.90390446e-003 -3.24238930e-003 9.75975534e-004 -5.17175952e-003
      3.81906983e-003 -3.24017904e-003 -3.41198524e-004 -1.32981874e-003
      4.22692625e-003 -1.01811858e-003 2.58590910e-003 -1.90114079e-003
      -4.27477527e-004 -3.61177931e-003 2.36476911e-003 -8.08093289e-004
      1.89539848e-003 -2.08130106e-003 -5.28705120e-003 4.06631827e-003
      -7.50480511e-004 9.58910305e-003</_></support_vectors>
  <decision_functions>
    <_>
      <sv_count>1</sv_count>
      <rho>1.2352485761798973e+000</rho>
      <alpha>
        1.</alpha>
      <index>
        0</index></_>
    <_>
      <sv_count>1</sv_count>
      <rho>3.9401016211708586e+000</rho>
      <alpha>
        1.</alpha>
      <index>
        1</index></_>
    <_>
      <sv_count>1</sv_count>
      <rho>7.0515319752474981e-001</rho>
      <alpha>
        1.</alpha>
      <index>
        2</index></_></decision_functions></my_svm>
</opencv_storage>
